network empty {
}

variable Variable_0 {
  type discrete [ 2 ] { 0, 1 };
}
variable Variable_1 {
  type discrete [ 2 ] { 0, 1 };
}
variable Variable_2 {
  type discrete [ 2 ] { 0, 1 };
}
variable Variable_3 {
  type discrete [ 2 ] { 0, 1 };
}
probability ( Variable_0 ) {
  table 0.5, 0.5;
}

probability ( Variable_1 | Variable_3 ) {
  (0) 0.852941176471, 0.147058823529;
  (1) 0.147058823529, 0.852941176471;
}

probability ( Variable_2 | Variable_0 ) {
  (0) 0.852941176471, 0.147058823529;
  (1) 0.147058823529, 0.852941176471;
}

probability ( Variable_3 | Variable_2 ) {
  (0) 0.735294117647, 0.264705882353;
  (1) 0.264705882353, 0.735294117647;
}

